digraph Tree {
node [shape=box, style="filled, rounded", color="black", fontname=helvetica] ;
edge [fontname=helvetica] ;
0 [label="sepal length (cm) <= 5.45\ngini = 0.66\nsamples = 102\nvalue = [49, 57, 44]\nclass = versicolor", fillcolor="#effdf5"] ;
1 [label="petal width (cm) <= 0.8\ngini = 0.26\nsamples = 34\nvalue = [45, 7, 1]\nclass = setosa", fillcolor="#ea975b"] ;
0 -> 1 [labeldistance=2.5, labelangle=45, headlabel="True"] ;
2 [label="gini = 0.0\nsamples = 28\nvalue = [45, 0, 0]\nclass = setosa", fillcolor="#e58139"] ;
1 -> 2 ;
3 [label="petal width (cm) <= 1.55\ngini = 0.22\nsamples = 6\nvalue = [0, 7, 1]\nclass = versicolor", fillcolor="#55e993"] ;
1 -> 3 ;
4 [label="gini = 0.0\nsamples = 5\nvalue = [0, 7, 0]\nclass = versicolor", fillcolor="#39e581"] ;
3 -> 4 ;
5 [label="gini = 0.0\nsamples = 1\nvalue = [0, 0, 1]\nclass = virginica", fillcolor="#8139e5"] ;
3 -> 5 ;
6 [label="petal length (cm) <= 5.05\ngini = 0.54\nsamples = 68\nvalue = [4, 50, 43]\nclass = versicolor", fillcolor="#e5fcef"] ;
0 -> 6 [labeldistance=2.5, labelangle=-45, headlabel="False"] ;
7 [label="petal width (cm) <= 0.6\ngini = 0.27\nsamples = 40\nvalue = [4, 49, 5]\nclass = versicolor", fillcolor="#5be996"] ;
6 -> 7 ;
8 [label="gini = 0.0\nsamples = 3\nvalue = [4, 0, 0]\nclass = setosa", fillcolor="#e58139"] ;
7 -> 8 ;
9 [label="petal width (cm) <= 1.75\ngini = 0.17\nsamples = 37\nvalue = [0, 49, 5]\nclass = versicolor", fillcolor="#4de88e"] ;
7 -> 9 ;
10 [label="petal length (cm) <= 4.95\ngini = 0.04\nsamples = 32\nvalue = [0, 48, 1]\nclass = versicolor", fillcolor="#3de684"] ;
9 -> 10 ;
11 [label="gini = 0.0\nsamples = 30\nvalue = [0, 46, 0]\nclass = versicolor", fillcolor="#39e581"] ;
10 -> 11 ;
12 [label="petal width (cm) <= 1.6\ngini = 0.44\nsamples = 2\nvalue = [0, 2, 1]\nclass = versicolor", fillcolor="#9cf2c0"] ;
10 -> 12 ;
13 [label="gini = 0.0\nsamples = 1\nvalue = [0, 0, 1]\nclass = virginica", fillcolor="#8139e5"] ;
12 -> 13 ;
14 [label="gini = 0.0\nsamples = 1\nvalue = [0, 2, 0]\nclass = versicolor", fillcolor="#39e581"] ;
12 -> 14 ;
15 [label="sepal length (cm) <= 6.0\ngini = 0.32\nsamples = 5\nvalue = [0, 1, 4]\nclass = virginica", fillcolor="#a06aec"] ;
9 -> 15 ;
16 [label="petal length (cm) <= 4.9\ngini = 0.5\nsamples = 2\nvalue = [0, 1, 1]\nclass = versicolor", fillcolor="#ffffff"] ;
15 -> 16 ;
17 [label="gini = 0.0\nsamples = 1\nvalue = [0, 1, 0]\nclass = versicolor", fillcolor="#39e581"] ;
16 -> 17 ;
18 [label="gini = 0.0\nsamples = 1\nvalue = [0, 0, 1]\nclass = virginica", fillcolor="#8139e5"] ;
16 -> 18 ;
19 [label="gini = 0.0\nsamples = 3\nvalue = [0, 0, 3]\nclass = virginica", fillcolor="#8139e5"] ;
15 -> 19 ;
20 [label="sepal length (cm) <= 6.05\ngini = 0.05\nsamples = 28\nvalue = [0, 1, 38]\nclass = virginica", fillcolor="#843ee6"] ;
6 -> 20 ;
21 [label="petal width (cm) <= 1.75\ngini = 0.5\nsamples = 2\nvalue = [0, 1, 1]\nclass = versicolor", fillcolor="#ffffff"] ;
20 -> 21 ;
22 [label="gini = 0.0\nsamples = 1\nvalue = [0, 1, 0]\nclass = versicolor", fillcolor="#39e581"] ;
21 -> 22 ;
23 [label="gini = 0.0\nsamples = 1\nvalue = [0, 0, 1]\nclass = virginica", fillcolor="#8139e5"] ;
21 -> 23 ;
24 [label="gini = 0.0\nsamples = 26\nvalue = [0, 0, 37]\nclass = virginica", fillcolor="#8139e5"] ;
20 -> 24 ;
}